digraph Tree {
node [shape=box, style="filled, rounded", color="black", fontname="helvetica"] ;
edge [fontname="helvetica"] ;
0 [label="death <= 0.5\ngini = 0.498\nsamples = 1141\nvalue = [672, 16, 1, 3, 449]\nclass = nnnynn", fillcolor="#f7d6bf"] ;
1 [label="age <= 29.0\ngini = 0.06\nsamples = 550\nvalue = [533, 13, 1, 3, 0]\nclass = nnnynn", fillcolor="#e6853f"] ;
0 -> 1 [labeldistance=2.5, labelangle=45, headlabel="True"] ;
2 [label="gini = 0.5\nsamples = 2\nvalue = [1, 1, 0, 0, 0]\nclass = nnnynn", fillcolor="#ffffff"] ;
1 -> 2 ;
3 [label="gini = 0.057\nsamples = 548\nvalue = [532, 12, 1, 3, 0]\nclass = nnnynn", fillcolor="#e6853f"] ;
1 -> 3 ;
4 [label="ass_flag <= 1.5\ngini = 0.367\nsamples = 591\nvalue = [139, 3, 0, 0, 449]\nclass = ynnnnn", fillcolor="#ed77d4"] ;
0 -> 4 [labeldistance=2.5, labelangle=-45, headlabel="False"] ;
5 [label="gini = 0.383\nsamples = 525\nvalue = [131, 3, 0, 0, 391]\nclass = ynnnnn", fillcolor="#ee7cd5"] ;
4 -> 5 ;
6 [label="gini = 0.213\nsamples = 66\nvalue = [8, 0, 0, 0, 58]\nclass = ynnnnn", fillcolor="#e954c9"] ;
4 -> 6 ;
}